digraph Tree {
node [shape=box, style="filled, rounded", color="black", fontname="helvetica"] ;
edge [fontname="helvetica"] ;
0 [label="CGPA <= 8.63\nsquared_error = 0.021\nsamples = 320\nvalue = 0.724", fillcolor="#efb286"] ;
1 [label="CGPA <= 7.895\nsquared_error = 0.012\nsamples = 163\nvalue = 0.621", fillcolor="#f3c7a7"] ;
0 -> 1 [labeldistance=2.5, labelangle=45, headlabel="True"] ;
2 [label="CGPA <= 7.665\nsquared_error = 0.007\nsamples = 40\nvalue = 0.496", fillcolor="#f9e0ce"] ;
1 -> 2 ;
3 [label="CGPA <= 7.655\nsquared_error = 0.006\nsamples = 26\nvalue = 0.469", fillcolor="#fae5d7"] ;
2 -> 3 ;
4 [label="GRE Score <= 301.0\nsquared_error = 0.006\nsamples = 23\nvalue = 0.481", fillcolor="#f9e3d3"] ;
3 -> 4 ;
5 [label="(...)", fillcolor="#C0C0C0"] ;
4 -> 5 ;
30 [label="(...)", fillcolor="#C0C0C0"] ;
4 -> 30 ;
45 [label="SOP <= 3.5\nsquared_error = 0.0\nsamples = 3\nvalue = 0.373", fillcolor="#fef8f5"] ;
3 -> 45 ;
46 [label="(...)", fillcolor="#C0C0C0"] ;
45 -> 46 ;
49 [label="(...)", fillcolor="#C0C0C0"] ;
45 -> 49 ;
50 [label="TOEFL Score <= 97.5\nsquared_error = 0.005\nsamples = 14\nvalue = 0.547", fillcolor="#f6d6be"] ;
2 -> 50 ;
51 [label="SOP <= 2.25\nsquared_error = 0.002\nsamples = 5\nvalue = 0.482", fillcolor="#f9e3d2"] ;
50 -> 51 ;
52 [label="(...)", fillcolor="#C0C0C0"] ;
51 -> 52 ;
57 [label="(...)", fillcolor="#C0C0C0"] ;
51 -> 57 ;
60 [label="GRE Score <= 295.5\nsquared_error = 0.003\nsamples = 9\nvalue = 0.583", fillcolor="#f5ceb3"] ;
50 -> 60 ;
61 [label="(...)", fillcolor="#C0C0C0"] ;
60 -> 61 ;
62 [label="(...)", fillcolor="#C0C0C0"] ;
60 -> 62 ;
77 [label="Serial No. <= 129.0\nsquared_error = 0.007\nsamples = 123\nvalue = 0.662", fillcolor="#f2bf9a"] ;
1 -> 77 ;
78 [label="GRE Score <= 314.5\nsquared_error = 0.009\nsamples = 42\nvalue = 0.613", fillcolor="#f4c8a9"] ;
77 -> 78 ;
79 [label="TOEFL Score <= 98.5\nsquared_error = 0.006\nsamples = 25\nvalue = 0.572", fillcolor="#f5d1b6"] ;
78 -> 79 ;
80 [label="(...)", fillcolor="#C0C0C0"] ;
79 -> 80 ;
81 [label="(...)", fillcolor="#C0C0C0"] ;
79 -> 81 ;
116 [label="CGPA <= 8.58\nsquared_error = 0.008\nsamples = 17\nvalue = 0.673", fillcolor="#f1bc96"] ;
78 -> 116 ;
117 [label="(...)", fillcolor="#C0C0C0"] ;
116 -> 117 ;
144 [label="(...)", fillcolor="#C0C0C0"] ;
116 -> 144 ;
145 [label="CGPA <= 8.08\nsquared_error = 0.003\nsamples = 81\nvalue = 0.688", fillcolor="#f1b992"] ;
77 -> 145 ;
146 [label="CGPA <= 7.975\nsquared_error = 0.002\nsamples = 14\nvalue = 0.624", fillcolor="#f3c6a6"] ;
145 -> 146 ;
147 [label="(...)", fillcolor="#C0C0C0"] ;
146 -> 147 ;
152 [label="(...)", fillcolor="#C0C0C0"] ;
146 -> 152 ;
171 [label="GRE Score <= 306.5\nsquared_error = 0.003\nsamples = 67\nvalue = 0.701", fillcolor="#f0b78e"] ;
145 -> 171 ;
172 [label="(...)", fillcolor="#C0C0C0"] ;
171 -> 172 ;
195 [label="(...)", fillcolor="#C0C0C0"] ;
171 -> 195 ;
292 [label="CGPA <= 9.055\nsquared_error = 0.008\nsamples = 157\nvalue = 0.829", fillcolor="#eb9d65"] ;
0 -> 292 [labeldistance=2.5, labelangle=-45, headlabel="False"] ;
293 [label="GRE Score <= 319.5\nsquared_error = 0.004\nsamples = 75\nvalue = 0.759", fillcolor="#eeab7b"] ;
292 -> 293 ;
294 [label="Serial No. <= 46.5\nsquared_error = 0.003\nsamples = 33\nvalue = 0.729", fillcolor="#efb185"] ;
293 -> 294 ;
295 [label="TOEFL Score <= 108.5\nsquared_error = 0.0\nsamples = 2\nvalue = 0.645", fillcolor="#f2c29f"] ;
294 -> 295 ;
296 [label="(...)", fillcolor="#C0C0C0"] ;
295 -> 296 ;
297 [label="(...)", fillcolor="#C0C0C0"] ;
295 -> 297 ;
298 [label="TOEFL Score <= 102.5\nsquared_error = 0.003\nsamples = 31\nvalue = 0.735", fillcolor="#efb083"] ;
294 -> 298 ;
299 [label="(...)", fillcolor="#C0C0C0"] ;
298 -> 299 ;
310 [label="(...)", fillcolor="#C0C0C0"] ;
298 -> 310 ;
357 [label="Serial No. <= 127.0\nsquared_error = 0.003\nsamples = 42\nvalue = 0.782", fillcolor="#eda774"] ;
293 -> 357 ;
358 [label="CGPA <= 8.9\nsquared_error = 0.006\nsamples = 9\nvalue = 0.741", fillcolor="#eeaf81"] ;
357 -> 358 ;
359 [label="(...)", fillcolor="#C0C0C0"] ;
358 -> 359 ;
372 [label="(...)", fillcolor="#C0C0C0"] ;
358 -> 372 ;
375 [label="Serial No. <= 236.5\nsquared_error = 0.002\nsamples = 33\nvalue = 0.794", fillcolor="#eca470"] ;
357 -> 375 ;
376 [label="(...)", fillcolor="#C0C0C0"] ;
375 -> 376 ;
393 [label="(...)", fillcolor="#C0C0C0"] ;
375 -> 393 ;
428 [label="CGPA <= 9.185\nsquared_error = 0.003\nsamples = 82\nvalue = 0.894", fillcolor="#e89051"] ;
292 -> 428 ;
429 [label="University Rating <= 4.5\nsquared_error = 0.001\nsamples = 30\nvalue = 0.841", fillcolor="#ea9b61"] ;
428 -> 429 ;
430 [label="GRE Score <= 328.5\nsquared_error = 0.001\nsamples = 24\nvalue = 0.831", fillcolor="#eb9d65"] ;
429 -> 430 ;
431 [label="(...)", fillcolor="#C0C0C0"] ;
430 -> 431 ;
462 [label="(...)", fillcolor="#C0C0C0"] ;
430 -> 462 ;
467 [label="LOR  <= 4.75\nsquared_error = 0.0\nsamples = 6\nvalue = 0.882", fillcolor="#e99355"] ;
429 -> 467 ;
468 [label="(...)", fillcolor="#C0C0C0"] ;
467 -> 468 ;
475 [label="(...)", fillcolor="#C0C0C0"] ;
467 -> 475 ;
476 [label="CGPA <= 9.465\nsquared_error = 0.001\nsamples = 52\nvalue = 0.924", fillcolor="#e78a47"] ;
428 -> 476 ;
477 [label="TOEFL Score <= 114.5\nsquared_error = 0.0\nsamples = 32\nvalue = 0.908", fillcolor="#e88d4d"] ;
476 -> 477 ;
478 [label="(...)", fillcolor="#C0C0C0"] ;
477 -> 478 ;
497 [label="(...)", fillcolor="#C0C0C0"] ;
477 -> 497 ;
518 [label="Research <= 0.5\nsquared_error = 0.0\nsamples = 20\nvalue = 0.951", fillcolor="#e6853f"] ;
476 -> 518 ;
519 [label="(...)", fillcolor="#C0C0C0"] ;
518 -> 519 ;
520 [label="(...)", fillcolor="#C0C0C0"] ;
518 -> 520 ;
}